<?xml version="1.0"?>
<opencv_storage>
<cascade>
  <stageType>BOOST</stageType>
  <featureType>HAAR</featureType>
  <height>20</height>
  <width>20</width>
  <stageParams>
    <boostType>GAB</boostType>
    <minHitRate>9.9500000476837158e-01</minHitRate>
    <maxFalseAlarm>5.0000000000000000e-01</maxFalseAlarm>
    <weightTrimRate>9.4999999999999996e-01</weightTrimRate>
    <maxDepth>1</maxDepth>
    <maxWeakCount>100</maxWeakCount></stageParams>
  <featureParams>
    <maxCatCount>0</maxCatCount>
    <featSize>1</featSize>
    <mode>BASIC</mode></featureParams>
  <stageNum>10</stageNum>
  <stages>
    <!-- stage 0 -->
    <_>
      <maxWeakCount>2</maxWeakCount>
      <stageThreshold>-3.3558151125907898e-01</stageThreshold>
      <weakClassifiers>
        <_>
          <internalNodes>
            0 -1 2 -2.6301071047782898e-02</internalNodes>
          <leafValues>
            8.0606061220169067e-01 -9.6666663885116577e-01</leafValues></_>
        <_>
          <internalNodes>
            0 -1 25 -7.9943435266613960e-03</internalNodes>
          <leafValues>
            6.3108515739440918e-01 -9.4325685501098633e-01</leafValues></_></weakClassifiers></_>
    <!-- stage 1 -->
    <_>
      <maxWeakCount>3</maxWeakCount>
      <stageThreshold>-7.1153797209262848e-02</stageThreshold>
      <weakClassifiers>
        <_>
          <internalNodes>
            0 -1 3 -1.1284495145082474e-01</internalNodes>
          <leafValues>
            7.3041361570358276e-01 -9.3178296089172363e-01</leafValues></_>
        <_>
          <internalNodes>
            0 -1 13 -2.2466017398983240e-03</internalNodes>
          <leafValues>
            4.6286997199058533e-01 -9.4865208864212036e-01</leafValues></_>
        <_>
          <internalNodes>
            0 -1 28 -2.2507261019200087e-03</internalNodes>
          <leafValues>
            3.9775916934013367e-01 -9.6936970949172974e-01</leafValues></_></weakClassifiers></_>
    <!-- stage 2 -->
    <_>
      <maxWeakCount>3</maxWeakCount>
      <stageThreshold>-8.1901669502258301e-01</stageThreshold>
      <weakClassifiers>
        <_>
          <internalNodes>
            0 -1 12 -1.2848841026425362e-02</internalNodes>
          <leafValues>
            6.2090909481048584e-01 -9.3199998140335083e-01</leafValues></_>
        <_>
          <internalNodes>
            0 -1 14 1.1192196980118752e-02</internalNodes>
          <leafValues>
            -9.6869635581970215e-01 3.6788785457611084e-01</leafValues></_>
        <_>
          <internalNodes>
            0 -1 18 2.5562111288309097e-02</internalNodes>
          <leafValues>
            -4.7122943401336670e-01 8.2152259349822998e-01</leafValues></_></weakClassifiers></_>
    <!-- stage 3 -->
    <_>
      <maxWeakCount>3</maxWeakCount>
      <stageThreshold>-7.3608085513114929e-02</stageThreshold>
      <weakClassifiers>
        <_>
          <internalNodes>
            0 -1 29 -1.6154010081663728e-03</internalNodes>
          <leafValues>
            6.2465751171112061e-01 -9.1764706373214722e-01</leafValues></_>
        <_>
          <internalNodes>
            0 -1 1 -1.1345334351062775e-03</internalNodes>
          <leafValues>
            5.0698292255401611e-01 -7.4738317728042603e-01</leafValues></_>
        <_>
          <internalNodes>
            0 -1 30 -4.3815365061163902e-03</internalNodes>
          <leafValues>
            -9.6745246648788452e-01 3.3705607056617737e-01</leafValues></_></weakClassifiers></_>
    <!-- stage 4 -->
    <_>
      <maxWeakCount>3</maxWeakCount>
      <stageThreshold>-1.3846208341419697e-02</stageThreshold>
      <weakClassifiers>
        <_>
          <internalNodes>
            0 -1 22 -1.4406428672373295e-03</internalNodes>
          <leafValues>
            6.4638239145278931e-01 -7.3246330022811890e-01</leafValues></_>
        <_>
          <internalNodes>
            0 -1 20 1.7125974409282207e-03</internalNodes>
          <leafValues>
            -9.2436909675598145e-01 4.0985211730003357e-01</leafValues></_>
        <_>
          <internalNodes>
            0 -1 31 -8.9678997173905373e-03</internalNodes>
          <leafValues>
            -9.2724955081939697e-01 3.0876499414443970e-01</leafValues></_></weakClassifiers></_>
    <!-- stage 5 -->
    <_>
      <maxWeakCount>3</maxWeakCount>
      <stageThreshold>-2.1447581052780151e-01</stageThreshold>
      <weakClassifiers>
        <_>
          <internalNodes>
            0 -1 4 -1.7960768309421837e-04</internalNodes>
          <leafValues>
            5.8540922403335571e-01 -9.2035400867462158e-01</leafValues></_>
        <_>
          <internalNodes>
            0 -1 34 -1.5824637375771999e-03</internalNodes>
          <leafValues>
            3.6536005139350891e-01 -8.4467363357543945e-01</leafValues></_>
        <_>
          <internalNodes>
            0 -1 19 -1.1902716942131519e-03</internalNodes>
          <leafValues>
            3.4051811695098877e-01 -7.6927077770233154e-01</leafValues></_></weakClassifiers></_>
    <!-- stage 6 -->
    <_>
      <maxWeakCount>5</maxWeakCount>
      <stageThreshold>-7.6274418830871582e-01</stageThreshold>
      <weakClassifiers>
        <_>
          <internalNodes>
            0 -1 7 -5.5978138698264956e-04</internalNodes>
          <leafValues>
            5.9196716547012329e-01 -7.7996069192886353e-01</leafValues></_>
        <_>
          <internalNodes>
            0 -1 11 -4.9824248999357224e-03</internalNodes>
          <leafValues>
            -9.0530997514724731e-01 3.2733243703842163e-01</leafValues></_>
        <_>
          <internalNodes>
            0 -1 8 6.6203577443957329e-03</internalNodes>
          <leafValues>
            2.0488716661930084e-01 -9.8353219032287598e-01</leafValues></_>
        <_>
          <internalNodes>
            0 -1 26 -6.0282618505880237e-04</internalNodes>
          <leafValues>
            3.0384278297424316e-01 -7.6015603542327881e-01</leafValues></_>
        <_>
          <internalNodes>
            0 -1 35 -1.0804391466081142e-02</internalNodes>
          <leafValues>
            2.4515299499034882e-01 -8.3342778682708740e-01</leafValues></_></weakClassifiers></_>
    <!-- stage 7 -->
    <_>
      <maxWeakCount>5</maxWeakCount>
      <stageThreshold>-4.2724585533142090e-01</stageThreshold>
      <weakClassifiers>
        <_>
          <internalNodes>
            0 -1 21 -5.8171767741441727e-03</internalNodes>
          <leafValues>
            5.6463795900344849e-01 -8.2628059387207031e-01</leafValues></_>
        <_>
          <internalNodes>
            0 -1 16 7.0535726845264435e-03</internalNodes>
          <leafValues>
            -9.5944219827651978e-01 2.8489944338798523e-01</leafValues></_>
        <_>
          <internalNodes>
            0 -1 15 1.4911151491105556e-02</internalNodes>
          <leafValues>
            2.3298949003219604e-01 -9.2195141315460205e-01</leafValues></_>
        <_>
          <internalNodes>
            0 -1 32 -7.6323952525854111e-03</internalNodes>
          <leafValues>
            -8.0661284923553467e-01 2.6112470030784607e-01</leafValues></_>
        <_>
          <internalNodes>
            0 -1 17 3.4696459770202637e-02</internalNodes>
          <leafValues>
            -3.7997883558273315e-01 7.0698165893554688e-01</leafValues></_></weakClassifiers></_>
    <!-- stage 8 -->
    <_>
      <maxWeakCount>5</maxWeakCount>
      <stageThreshold>-4.5582127571105957e-01</stageThreshold>
      <weakClassifiers>
        <_>
          <internalNodes>
            0 -1 6 -9.3355383723974228e-03</internalNodes>
          <leafValues>
            -9.5294117927551270e-01 5.1864409446716309e-01</leafValues></_>
        <_>
          <internalNodes>
            0 -1 9 -2.6235433761030436e-03</internalNodes>
          <leafValues>
            4.0298482775688171e-01 -5.9251517057418823e-01</leafValues></_>
        <_>
          <internalNodes>
            0 -1 33 -1.4208091888576746e-03</internalNodes>
          <leafValues>
            2.8353717923164368e-01 -8.6314088106155396e-01</leafValues></_>
        <_>
          <internalNodes>
            0 -1 5 -8.1214628880843520e-04</internalNodes>
          <leafValues>
            2.9374378919601440e-01 -8.2729893922805786e-01</leafValues></_>
        <_>
          <internalNodes>
            0 -1 27 -1.6810528934001923e-02</internalNodes>
          <leafValues>
            -9.2694896459579468e-01 1.8744690716266632e-01</leafValues></_></weakClassifiers></_>
    <!-- stage 9 -->
    <_>
      <maxWeakCount>6</maxWeakCount>
      <stageThreshold>-1.0321857929229736e+00</stageThreshold>
      <weakClassifiers>
        <_>
          <internalNodes>
            0 -1 37 -1.2760644312947989e-04</internalNodes>
          <leafValues>
            5.6624317169189453e-01 -7.0161288976669312e-01</leafValues></_>
        <_>
          <internalNodes>
            0 -1 24 1.4581962022930384e-04</internalNodes>
          <leafValues>
            -8.0953043699264526e-01 3.0289256572723389e-01</leafValues></_>
        <_>
          <internalNodes>
            0 -1 36 -2.4319277144968510e-03</internalNodes>
          <leafValues>
            -9.5661211013793945e-01 2.4025803804397583e-01</leafValues></_>
        <_>
          <internalNodes>
            0 -1 0 8.9472346007823944e-03</internalNodes>
          <leafValues>
            -3.3837890625000000e-01 7.8680950403213501e-01</leafValues></_>
        <_>
          <internalNodes>
            0 -1 23 -3.5593137145042419e-03</internalNodes>
          <leafValues>
            2.4892459809780121e-01 -9.1672295331954956e-01</leafValues></_>
        <_>
          <internalNodes>
            0 -1 10 -3.2021070364862680e-04</internalNodes>
          <leafValues>
            2.0200200378894806e-01 -8.8647770881652832e-01</leafValues></_></weakClassifiers></_></stages>
  <features>
    <_>
      <rects>
        <_>
          0 6 2 4 -1.</_>
        <_>
          1 6 1 4 2.</_></rects>
      <tilted>0</tilted></_>
    <_>
      <rects>
        <_>
          3 6 4 3 -1.</_>
        <_>
          5 6 2 3 2.</_></rects>
      <tilted>0</tilted></_>
    <_>
      <rects>
        <_>
          3 6 9 6 -1.</_>
        <_>
          3 9 9 3 2.</_></rects>
      <tilted>0</tilted></_>
    <_>
      <rects>
        <_>
          4 4 11 12 -1.</_>
        <_>
          4 10 11 6 2.</_></rects>
      <tilted>0</tilted></_>
    <_>
      <rects>
        <_>
          4 6 2 2 -1.</_>
        <_>
          4 7 2 1 2.</_></rects>
      <tilted>0</tilted></_>
    <_>
      <rects>
        <_>
          4 7 4 3 -1.</_>
        <_>
          6 7 2 3 2.</_></rects>
      <tilted>0</tilted></_>
    <_>
      <rects>
        <_>
          4 7 6 3 -1.</_>
        <_>
          7 7 3 3 2.</_></rects>
      <tilted>0</tilted></_>
    <_>
      <rects>
        <_>
          4 9 9 1 -1.</_>
        <_>
          7 9 3 1 3.</_></rects>
      <tilted>0</tilted></_>
    <_>
      <rects>
        <_>
          5 4 4 7 -1.</_>
        <_>
          7 4 2 7 2.</_></rects>
      <tilted>0</tilted></_>
    <_>
      <rects>
        <_>
          5 4 6 2 -1.</_>
        <_>
          5 5 6 1 2.</_></rects>
      <tilted>0</tilted></_>
    <_>
      <rects>
        <_>
          5 5 2 2 -1.</_>
        <_>
          5 6 2 1 2.</_></rects>
      <tilted>0</tilted></_>
    <_>
      <rects>
        <_>
          5 6 4 4 -1.</_>
        <_>
          7 6 2 4 2.</_></rects>
      <tilted>0</tilted></_>
    <_>
      <rects>
        <_>
          5 7 3 8 -1.</_>
        <_>
          5 11 3 4 2.</_></rects>
      <tilted>0</tilted></_>
    <_>
      <rects>
        <_>
          6 5 2 4 -1.</_>
        <_>
          6 7 2 2 2.</_></rects>
      <tilted>0</tilted></_>
    <_>
      <rects>
        <_>
          6 8 12 3 -1.</_>
        <_>
          10 8 4 3 3.</_></rects>
      <tilted>0</tilted></_>
    <_>
      <rects>
        <_>
          6 9 8 2 -1.</_>
        <_>
          10 9 4 2 2.</_></rects>
      <tilted>0</tilted></_>
    <_>
      <rects>
        <_>
          6 9 12 2 -1.</_>
        <_>
          10 9 4 2 3.</_></rects>
      <tilted>0</tilted></_>
    <_>
      <rects>
        <_>
          7 0 4 4 -1.</_>
        <_>
          7 2 4 2 2.</_></rects>
      <tilted>0</tilted></_>
    <_>
      <rects>
        <_>
          7 0 5 4 -1.</_>
        <_>
          7 2 5 2 2.</_></rects>
      <tilted>0</tilted></_>
    <_>
      <rects>
        <_>
          8 3 6 1 -1.</_>
        <_>
          11 3 3 1 2.</_></rects>
      <tilted>0</tilted></_>
    <_>
      <rects>
        <_>
          8 6 6 4 -1.</_>
        <_>
          10 6 2 4 3.</_></rects>
      <tilted>0</tilted></_>
    <_>
      <rects>
        <_>
          8 7 6 4 -1.</_>
        <_>
          8 9 6 2 2.</_></rects>
      <tilted>0</tilted></_>
    <_>
      <rects>
        <_>
          9 3 4 4 -1.</_>
        <_>
          9 5 4 2 2.</_></rects>
      <tilted>0</tilted></_>
    <_>
      <rects>
        <_>
          10 6 6 2 -1.</_>
        <_>
          13 6 3 2 2.</_></rects>
      <tilted>0</tilted></_>
    <_>
      <rects>
        <_>
          10 9 2 3 -1.</_>
        <_>
          11 9 1 3 2.</_></rects>
      <tilted>0</tilted></_>
    <_>
      <rects>
        <_>
          11 4 4 8 -1.</_>
        <_>
          13 4 2 8 2.</_></rects>
      <tilted>0</tilted></_>
    <_>
      <rects>
        <_>
          11 4 3 6 -1.</_>
        <_>
          11 6 3 2 3.</_></rects>
      <tilted>0</tilted></_>
    <_>
      <rects>
        <_>
          11 6 4 5 -1.</_>
        <_>
          13 6 2 5 2.</_></rects>
      <tilted>0</tilted></_>
    <_>
      <rects>
        <_>
          11 10 6 2 -1.</_>
        <_>
          14 10 3 2 2.</_></rects>
      <tilted>0</tilted></_>
    <_>
      <rects>
        <_>
          12 4 2 7 -1.</_>
        <_>
          13 4 1 7 2.</_></rects>
      <tilted>0</tilted></_>
    <_>
      <rects>
        <_>
          12 4 3 7 -1.</_>
        <_>
          13 4 1 7 3.</_></rects>
      <tilted>0</tilted></_>
    <_>
      <rects>
        <_>
          12 4 4 12 -1.</_>
        <_>
          12 8 4 4 3.</_></rects>
      <tilted>0</tilted></_>
    <_>
      <rects>
        <_>
          12 6 2 6 -1.</_>
        <_>
          12 9 2 3 2.</_></rects>
      <tilted>0</tilted></_>
    <_>
      <rects>
        <_>
          12 7 2 5 -1.</_>
        <_>
          13 7 1 5 2.</_></rects>
      <tilted>0</tilted></_>
    <_>
      <rects>
        <_>
          13 5 3 4 -1.</_>
        <_>
          13 7 3 2 2.</_></rects>
      <tilted>0</tilted></_>
    <_>
      <rects>
        <_>
          13 7 4 8 -1.</_>
        <_>
          13 11 4 4 2.</_></rects>
      <tilted>0</tilted></_>
    <_>
      <rects>
        <_>
          13 8 3 2 -1.</_>
        <_>
          14 8 1 2 3.</_></rects>
      <tilted>0</tilted></_>
    <_>
      <rects>
        <_>
          13 8 3 3 -1.</_>
        <_>
          14 8 1 3 3.</_></rects>
      <tilted>0</tilted></_></features></cascade>
</opencv_storage>
